digraph Tree {
node [shape=box, style="filled", color="black"] ;
0 [label="X[0] <= 4.95\nmse = 0.085\nsamples = 10\nvalue = 3.31", fillcolor="#e5813969"] ;
1 [label="X[0] <= 4.5\nmse = 0.025\nsamples = 6\nvalue = 3.117", fillcolor="#e5813937"] ;
0 -> 1 [labeldistance=2.5, labelangle=45, headlabel="True"] ;
2 [label="mse = 0.0\nsamples = 1\nvalue = 2.9", fillcolor="#e5813900"] ;
1 -> 2 ;
3 [label="mse = 0.018\nsamples = 5\nvalue = 3.16", fillcolor="#e5813942"] ;
1 -> 3 ;
4 [label="X[0] <= 5.25\nmse = 0.035\nsamples = 4\nvalue = 3.6", fillcolor="#e58139b3"] ;
0 -> 4 [labeldistance=2.5, labelangle=-45, headlabel="False"] ;
5 [label="mse = 0.007\nsamples = 3\nvalue = 3.5", fillcolor="#e5813999"] ;
4 -> 5 ;
6 [label="mse = 0.0\nsamples = 1\nvalue = 3.9", fillcolor="#e58139ff"] ;
4 -> 6 ;
}